{
  "type": "NeuralNetwork",
  "sizes": [
    5,
    3,
    5,
    4
  ],
  "layers": [
    {
      "weights": [],
      "biases": []
    },
    {
      "weights": [
        [
          -0.05987809598445892,
          -0.07825740426778793,
          0.20693331956863403,
          0.052321892231702805,
          -0.07689489424228668
        ],
        [
          -0.10714080184698105,
          0.05932169407606125,
          0.15684792399406433,
          0.1086750254034996,
          -0.1302814930677414
        ],
        [
          5.293359279632568,
          -4.210841655731201,
          9.603662490844727,
          0.29370927810668945,
          0.12018176168203354
        ]
      ],
      "biases": [
        0.0042449734173715115,
        -0.06299182772636414,
        0.8795027732849121
      ]
    },
    {
      "weights": [
        [
          -0.008801992051303387,
          0.15127559006214142,
          -0.4964544475078583
        ],
        [
          0.04581154137849808,
          -0.17789329588413239,
          -4.6997504234313965
        ],
        [
          0.11802801489830017,
          -0.052403341978788376,
          0.3917703628540039
        ],
        [
          -0.13282641768455505,
          -0.08977245539426804,
          0.08163110166788101
        ],
        [
          -0.15068835020065308,
          -0.06866476684808731,
          -2.5284805297851562
        ]
      ],
      "biases": [
        0.2050335556268692,
        -0.049367621541023254,
        -0.8427674174308777,
        -0.44600287079811096,
        -0.08483424037694931
      ]
    },
    {
      "weights": [
        [
          0.1842513084411621,
          -2.7163448333740234,
          0.051511142402887344,
          0.3674814701080322,
          -1.5870163440704346
        ],
        [
          0.2096976488828659,
          3.3250832557678223,
          0.2541838586330414,
          -0.34132134914398193,
          1.9574015140533447
        ],
        [
          0.017058013007044792,
          -0.49709591269493103,
          0.06783298403024673,
          -0.07822912931442261,
          -0.2905263602733612
        ],
        [
          0.05609399452805519,
          0.8707394003868103,
          0.06555166095495224,
          0.07183829694986343,
          0.29450100660324097
        ]
      ],
      "biases": [
        0.07887279242277145,
        0.7057515382766724,
        0.07975660264492035,
        0.21531783044338226
      ]
    }
  ],
  "inputLookup": {
    "homeElo": 0,
    "awayElo": 1,
    "eloDiff": 2,
    "eloAv": 3,
    "eloE": 4
  },
  "inputLookupLength": 5,
  "outputLookup": {
    "h": 0,
    "a": 1,
    "homeGoals": 2,
    "awayGoals": 3
  },
  "outputLookupLength": 4,
  "options": {
    "inputSize": 5,
    "outputSize": 4,
    "binaryThresh": 0.5,
    "iterations": 20000,
    "errorThresh": 0.05,
    "learningRate": 0.005,
    "logPeriod": 100,
    "hiddenLayers": [
      3,
      5
    ],
    "activation": "leaky-relu",
    "leakyReluAlpha": 0.01
  },
  "trainOpts": {
    "activation": "leaky-relu",
    "iterations": 20000,
    "errorThresh": 0.05,
    "log": true,
    "logPeriod": 100,
    "leakyReluAlpha": 0.01,
    "learningRate": 0.005,
    "momentum": 0.1,
    "callbackPeriod": 10,
    "timeout": "Infinity",
    "beta1": 0.9,
    "beta2": 0.999,
    "epsilon": 1e-8
  }
}